digraph Tree {
node [shape=box, style="filled, rounded", color="black", fontname=helvetica] ;
edge [fontname=helvetica] ;
0 [label="sepal length (cm) <= 5.45\ngini = 0.67\nsamples = 91\nvalue = [54, 50, 46]\nclass = setosa", fillcolor="#fefaf7"] ;
1 [label="petal width (cm) <= 0.7\ngini = 0.24\nsamples = 34\nvalue = [50, 7, 1]\nclass = setosa", fillcolor="#e99558"] ;
0 -> 1 [labeldistance=2.5, labelangle=45, headlabel="True"] ;
2 [label="gini = 0.0\nsamples = 28\nvalue = [50, 0, 0]\nclass = setosa", fillcolor="#e58139"] ;
1 -> 2 ;
3 [label="petal length (cm) <= 4.2\ngini = 0.22\nsamples = 6\nvalue = [0, 7, 1]\nclass = versicolor", fillcolor="#55e993"] ;
1 -> 3 ;
4 [label="gini = 0.0\nsamples = 4\nvalue = [0, 6, 0]\nclass = versicolor", fillcolor="#39e581"] ;
3 -> 4 ;
5 [label="sepal length (cm) <= 5.15\ngini = 0.5\nsamples = 2\nvalue = [0, 1, 1]\nclass = versicolor", fillcolor="#ffffff"] ;
3 -> 5 ;
6 [label="gini = 0.0\nsamples = 1\nvalue = [0, 0, 1]\nclass = virginica", fillcolor="#8139e5"] ;
5 -> 6 ;
7 [label="gini = 0.0\nsamples = 1\nvalue = [0, 1, 0]\nclass = versicolor", fillcolor="#39e581"] ;
5 -> 7 ;
8 [label="petal width (cm) <= 1.7\ngini = 0.54\nsamples = 57\nvalue = [4, 43, 45]\nclass = virginica", fillcolor="#faf7fe"] ;
0 -> 8 [labeldistance=2.5, labelangle=-45, headlabel="False"] ;
9 [label="petal width (cm) <= 0.65\ngini = 0.31\nsamples = 32\nvalue = [4, 42, 5]\nclass = versicolor", fillcolor="#60ea9a"] ;
8 -> 9 ;
10 [label="gini = 0.0\nsamples = 3\nvalue = [4, 0, 0]\nclass = setosa", fillcolor="#e58139"] ;
9 -> 10 ;
11 [label="petal width (cm) <= 1.35\ngini = 0.19\nsamples = 29\nvalue = [0, 42, 5]\nclass = versicolor", fillcolor="#51e890"] ;
9 -> 11 ;
12 [label="gini = 0.0\nsamples = 14\nvalue = [0, 25, 0]\nclass = versicolor", fillcolor="#39e581"] ;
11 -> 12 ;
13 [label="sepal length (cm) <= 6.95\ngini = 0.35\nsamples = 15\nvalue = [0, 17, 5]\nclass = versicolor", fillcolor="#73eda6"] ;
11 -> 13 ;
14 [label="sepal length (cm) <= 6.35\ngini = 0.31\nsamples = 14\nvalue = [0, 17, 4]\nclass = versicolor", fillcolor="#68eb9f"] ;
13 -> 14 ;
15 [label="sepal width (cm) <= 2.85\ngini = 0.41\nsamples = 9\nvalue = [0, 10, 4]\nclass = versicolor", fillcolor="#88efb3"] ;
14 -> 15 ;
16 [label="petal length (cm) <= 4.75\ngini = 0.32\nsamples = 4\nvalue = [0, 1, 4]\nclass = virginica", fillcolor="#a06aec"] ;
15 -> 16 ;
17 [label="gini = 0.0\nsamples = 1\nvalue = [0, 1, 0]\nclass = versicolor", fillcolor="#39e581"] ;
16 -> 17 ;
18 [label="gini = 0.0\nsamples = 3\nvalue = [0, 0, 4]\nclass = virginica", fillcolor="#8139e5"] ;
16 -> 18 ;
19 [label="gini = 0.0\nsamples = 5\nvalue = [0, 9, 0]\nclass = versicolor", fillcolor="#39e581"] ;
15 -> 19 ;
20 [label="gini = 0.0\nsamples = 5\nvalue = [0, 7, 0]\nclass = versicolor", fillcolor="#39e581"] ;
14 -> 20 ;
21 [label="gini = 0.0\nsamples = 1\nvalue = [0, 0, 1]\nclass = virginica", fillcolor="#8139e5"] ;
13 -> 21 ;
22 [label="petal length (cm) <= 4.85\ngini = 0.05\nsamples = 25\nvalue = [0, 1, 40]\nclass = virginica", fillcolor="#843ee6"] ;
8 -> 22 ;
23 [label="sepal length (cm) <= 5.95\ngini = 0.5\nsamples = 2\nvalue = [0, 1, 1]\nclass = versicolor", fillcolor="#ffffff"] ;
22 -> 23 ;
24 [label="gini = 0.0\nsamples = 1\nvalue = [0, 1, 0]\nclass = versicolor", fillcolor="#39e581"] ;
23 -> 24 ;
25 [label="gini = 0.0\nsamples = 1\nvalue = [0, 0, 1]\nclass = virginica", fillcolor="#8139e5"] ;
23 -> 25 ;
26 [label="gini = 0.0\nsamples = 23\nvalue = [0, 0, 39]\nclass = virginica", fillcolor="#8139e5"] ;
22 -> 26 ;
}